digraph Tree {
node [shape=box] ;
0 [label="X[0] <= 0.5\nentropy = 0.971\nsamples = 5\nvalue = [3, 2]"] ;
1 [label="entropy = 0.0\nsamples = 2\nvalue = [0, 2]"] ;
0 -> 1 [labeldistance=2.5, labelangle=45, headlabel="True"] ;
2 [label="entropy = 0.0\nsamples = 3\nvalue = [3, 0]"] ;
0 -> 2 [labeldistance=2.5, labelangle=-45, headlabel="False"] ;
}